digraph Tree {
node [shape=box, style="filled, rounded", color="black", fontname=helvetica] ;
edge [fontname=helvetica] ;
0 [label="petal length (cm) <= 2.45\ngini = 0.66\nsamples = 92\nvalue = [49, 46, 55]\nclass = virginica", fillcolor="#f8f3fd"] ;
1 [label="gini = 0.0\nsamples = 31\nvalue = [49, 0, 0]\nclass = setosa", fillcolor="#e58139"] ;
0 -> 1 [labeldistance=2.5, labelangle=45, headlabel="True"] ;
2 [label="petal length (cm) <= 4.75\ngini = 0.5\nsamples = 61\nvalue = [0, 46, 55]\nclass = virginica", fillcolor="#eadffb"] ;
0 -> 2 [labeldistance=2.5, labelangle=-45, headlabel="False"] ;
3 [label="sepal length (cm) <= 5.0\ngini = 0.08\nsamples = 31\nvalue = [0, 44, 2]\nclass = versicolor", fillcolor="#42e687"] ;
2 -> 3 ;
4 [label="petal length (cm) <= 3.9\ngini = 0.5\nsamples = 2\nvalue = [0, 2, 2]\nclass = versicolor", fillcolor="#ffffff"] ;
3 -> 4 ;
5 [label="gini = 0.0\nsamples = 1\nvalue = [0, 2, 0]\nclass = versicolor", fillcolor="#39e581"] ;
4 -> 5 ;
6 [label="gini = 0.0\nsamples = 1\nvalue = [0, 0, 2]\nclass = virginica", fillcolor="#8139e5"] ;
4 -> 6 ;
7 [label="gini = 0.0\nsamples = 29\nvalue = [0, 42, 0]\nclass = versicolor", fillcolor="#39e581"] ;
3 -> 7 ;
8 [label="petal length (cm) <= 4.95\ngini = 0.07\nsamples = 30\nvalue = [0, 2, 53]\nclass = virginica", fillcolor="#8640e6"] ;
2 -> 8 ;
9 [label="sepal length (cm) <= 6.25\ngini = 0.41\nsamples = 3\nvalue = [0, 2, 5]\nclass = virginica", fillcolor="#b388ef"] ;
8 -> 9 ;
10 [label="gini = 0.0\nsamples = 2\nvalue = [0, 0, 5]\nclass = virginica", fillcolor="#8139e5"] ;
9 -> 10 ;
11 [label="gini = 0.0\nsamples = 1\nvalue = [0, 2, 0]\nclass = versicolor", fillcolor="#39e581"] ;
9 -> 11 ;
12 [label="gini = 0.0\nsamples = 27\nvalue = [0, 0, 48]\nclass = virginica", fillcolor="#8139e5"] ;
8 -> 12 ;
}